{
 "m": 10,
 "tau": "half",
 "b": 0.6180339887498949,
 "witness": {
  "profile": [
   8,
   8,
   7
  ],
  "U": [
   -0.3632712640026804,
   0.5000000000000001
  ],
  "V": [
   -0.5877852522924732,
   -0.1909830056250525
  ],
  "W": [
   0.5877852522924731,
   0.19098300562505258
  ],
  "S": [
   [
    -0.5877852522924732,
    -0.1909830056250525
   ],
   [
    -0.5877852522924731,
    0.19098300562505263
   ],
   [
    -1.135310019130245e-16,
    -0.6180339887498949
   ],
   [
    0.30901699437494745,
    0.9510565162951535
   ],
   [
    0.5877852522924731,
    -0.19098300562505274
   ],
   [
    0.5877852522924731,
    0.19098300562505258
   ],
   [
    0.8090169943749473,
    -0.5877852522924734
   ],
   [
    1.0,
    0.0
   ]
  ],
  "O1": [
   [
    -1.0,
    1.2246467991473532e-16
   ],
   [
    -0.8090169943749473,
    0.5877852522924732
   ],
   [
    -0.3632712640026804,
    0.5000000000000001
   ],
   [
    -0.30901699437494734,
    0.9510565162951536
   ],
   [
    3.7843667304341506e-17,
    0.6180339887498949
   ],
   [
    0.3632712640026805,
    0.5000000000000001
   ],
   [
    0.5877852522924731,
    0.19098300562505258
   ],
   [
    0.8090169943749475,
    0.5877852522924731
   ]
  ],
  "O2": [
   [
    -0.8090169943749475,
    -0.587785252292473
   ],
   [
    -0.5877852522924732,
    -0.1909830056250525
   ],
   [
    -0.36327126400268056,
    -0.5
   ],
   [
    -0.3632712640026804,
    0.5000000000000001
   ],
   [
    -0.30901699437494756,
    -0.9510565162951535
   ],
   [
    0.30901699437494723,
    -0.9510565162951536
   ],
   [
    0.36327126400268034,
    -0.5000000000000001
   ]
  ],
  "classes": {
   "(1.0, 0.0)": [
    [
     -1.135310019130245e-16,
     -0.6180339887498949
    ],
    [
     3.7843667304341506e-17,
     0.6180339887498949
    ],
    [
     0.30901699437494723,
     -0.9510565162951536
    ],
    [
     0.30901699437494745,
     0.9510565162951535
    ]
   ],
   "(0.8090169943749475, 0.5877852522924731)": [
    [
     -0.3632712640026804,
     0.5000000000000001
    ],
    [
     -0.30901699437494734,
     0.9510565162951536
    ],
    [
     0.36327126400268034,
     -0.5000000000000001
    ],
    [
     0.8090169943749473,
     -0.5877852522924734
    ]
   ],
   "(0.30901699437494745, 0.9510565162951535)": [
    [
     -0.8090169943749473,
     0.5877852522924732
    ],
    [
     -0.5877852522924731,
     0.19098300562505263
    ],
    [
     0.5877852522924731,
     -0.19098300562505274
    ],
    [
     1.0,
     0.0
    ]
   ],
   "(-0.30901699437494734, 0.9510565162951536)": [
    [
     -1.0,
     1.2246467991473532e-16
    ],
    [
     -0.5877852522924732,
     -0.1909830056250525
    ],
    [
     0.5877852522924731,
     0.19098300562505258
    ],
    [
     0.8090169943749475,
     0.5877852522924731
    ]
   ],
   "(-0.8090169943749473, 0.5877852522924732)": [
    [
     -0.8090169943749475,
     -0.587785252292473
    ],
    [
     -0.36327126400268056,
     -0.5
    ],
    [
     0.30901699437494745,
     0.9510565162951535
    ],
    [
     0.3632712640026805,
     0.5000000000000001
    ]
   ],
   "(-1.0, 1.2246467991473532e-16)": [
    [
     -0.30901699437494756,
     -0.9510565162951535
    ],
    [
     -0.30901699437494734,
     0.9510565162951536
    ],
    [
     -1.135310019130245e-16,
     -0.6180339887498949
    ],
    [
     3.7843667304341506e-17,
     0.6180339887498949
    ]
   ],
   "(-0.8090169943749475, -0.587785252292473)": [
    [
     -0.8090169943749473,
     0.5877852522924732
    ],
    [
     -0.3632712640026804,
     0.5000000000000001
    ],
    [
     0.30901699437494723,
     -0.9510565162951536
    ],
    [
     0.36327126400268034,
     -0.5000000000000001
    ]
   ],
   "(-0.30901699437494756, -0.9510565162951535)": [
    [
     -1.0,
     1.2246467991473532e-16
    ],
    [
     -0.5877852522924731,
     0.19098300562505263
    ],
    [
     0.5877852522924731,
     -0.19098300562505274
    ],
    [
     0.8090169943749473,
     -0.5877852522924734
    ]
   ],
   "(0.30901699437494723, -0.9510565162951536)": [
    [
     -0.8090169943749475,
     -0.587785252292473
    ],
    [
     -0.5877852522924732,
     -0.1909830056250525
    ],
    [
     0.5877852522924731,
     0.19098300562505258
    ],
    [
     1.0,
     0.0
    ]
   ],
   "(0.8090169943749473, -0.5877852522924734)": [
    [
     -0.36327126400268056,
     -0.5
    ],
    [
     -0.30901699437494756,
     -0.9510565162951535
    ],
    [
     0.3632712640026805,
     0.5000000000000001
    ],
    [
     0.8090169943749475,
     0.5877852522924731
    ]
   ],
   "(0.5877852522924731, 0.19098300562505258)": [
    [
     -0.5877852522924731,
     0.19098300562505263
    ],
    [
     -0.36327126400268056,
     -0.5
    ],
    [
     -0.30901699437494734,
     0.9510565162951536
    ],
    [
     0.30901699437494723,
     -0.9510565162951536
    ]
   ],
   "(0.3632712640026805, 0.5000000000000001)": [
    [
     -0.8090169943749473,
     0.5877852522924732
    ],
    [
     -0.5877852522924732,
     -0.1909830056250525
    ],
    [
     -1.135310019130245e-16,
     -0.6180339887498949
    ],
    [
     0.8090169943749473,
     -0.5877852522924734
    ]
   ],
   "(3.7843667304341506e-17, 0.6180339887498949)": [
    [
     -1.0,
     1.2246467991473532e-16
    ],
    [
     -0.36327126400268056,
     -0.5
    ],
    [
     0.36327126400268034,
     -0.5000000000000001
    ],
    [
     1.0,
     0.0
    ]
   ],
   "(-0.3632712640026804, 0.5000000000000001)": [
    [
     -0.8090169943749475,
     -0.587785252292473
    ],
    [
     -1.135310019130245e-16,
     -0.6180339887498949
    ],
    [
     0.5877852522924731,
     -0.19098300562505274
    ],
    [
     0.8090169943749475,
     0.5877852522924731
    ]
   ],
   "(-0.5877852522924731, 0.19098300562505263)": [
    [
     -0.30901699437494756,
     -0.9510565162951535
    ],
    [
     0.30901699437494745,
     0.9510565162951535
    ],
    [
     0.36327126400268034,
     -0.5000000000000001
    ],
    [
     0.5877852522924731,
     0.19098300562505258
    ]
   ],
   "(-0.5877852522924732, -0.1909830056250525)": [
    [
     -0.30901699437494734,
     0.9510565162951536
    ],
    [
     0.30901699437494723,
     -0.9510565162951536
    ],
    [
     0.3632712640026805,
     0.5000000000000001
    ],
    [
     0.5877852522924731,
     -0.19098300562505274
    ]
   ],
   "(-0.36327126400268056, -0.5)": [
    [
     -0.8090169943749473,
     0.5877852522924732
    ],
    [
     3.7843667304341506e-17,
     0.6180339887498949
    ],
    [
     0.5877852522924731,
     0.19098300562505258
    ],
    [
     0.8090169943749473,
     -0.5877852522924734
    ]
   ],
   "(-1.135310019130245e-16, -0.6180339887498949)": [
    [
     -1.0,
     1.2246467991473532e-16
    ],
    [
     -0.3632712640026804,
     0.5000000000000001
    ],
    [
     0.3632712640026805,
     0.5000000000000001
    ],
    [
     1.0,
     0.0
    ]
   ],
   "(0.36327126400268034, -0.5000000000000001)": [
    [
     -0.8090169943749475,
     -0.587785252292473
    ],
    [
     -0.5877852522924731,
     0.19098300562505263
    ],
    [
     3.7843667304341506e-17,
     0.6180339887498949
    ],
    [
     0.8090169943749475,
     0.5877852522924731
    ]
   ],
   "(0.5877852522924731, -0.19098300562505274)": [
    [
     -0.5877852522924732,
     -0.1909830056250525
    ],
    [
     -0.3632712640026804,
     0.5000000000000001
    ],
    [
     -0.30901699437494756,
     -0.9510565162951535
    ],
    [
     0.30901699437494745,
     0.9510565162951535
    ]
   ]
  }
 }
}