{
 "m": 8,
 "tau": "half",
 "b": 1.453405903132714,
 "witness": {
  "profile": [
   7,
   6,
   6
  ],
  "U": [
   0.7071067811865476,
   0.7071067811865475
  ],
  "V": [
   -1.3427719663353965,
   -0.55619435963051
  ],
  "W": [
   -0.7071067811865477,
   -0.7071067811865475
  ],
  "S": [
   [
    -1.3427719663353965,
    -0.55619435963051
   ],
   [
    -0.7071067811865477,
    -0.7071067811865475
   ],
   [
    -0.7071067811865475,
    0.7071067811865476
   ],
   [
    6.123233995736766e-17,
    1.0
   ],
   [
    0.5561943596305102,
    1.3427719663353963
   ],
   [
    1.0,
    0.0
   ],
   [
    1.342771966335396,
    -0.5561943596305111
   ]
  ],
  "O1": [
   [
    -1.0,
    1.2246467991473532e-16
   ],
   [
    -0.7071067811865477,
    -0.7071067811865475
   ],
   [
    -0.5561943596305101,
    1.3427719663353963
   ],
   [
    -1.8369701987210297e-16,
    -1.0
   ],
   [
    0.5561943596305106,
    -1.342771966335396
   ],
   [
    0.7071067811865476,
    0.7071067811865475
   ]
  ],
  "O2": [
   [
    -1.3427719663353965,
    -0.55619435963051
   ],
   [
    -1.3427719663353963,
    0.5561943596305103
   ],
   [
    -0.556194359630511,
    -1.342771966335396
   ],
   [
    0.7071067811865474,
    -0.7071067811865477
   ],
   [
    0.7071067811865476,
    0.7071067811865475
   ],
   [
    1.3427719663353963,
    0.5561943596305102
   ]
  ],
  "classes": {
   "(1.0, 0.0)": [
    [
     -1.8369701987210297e-16,
     -1.0
    ],
    [
     6.123233995736766e-17,
     1.0
    ],
    [
     0.5561943596305102,
     1.3427719663353963
    ],
    [
     0.5561943596305106,
     -1.342771966335396
    ]
   ],
   "(0.7071067811865476, 0.7071067811865475)": [
    [
     -0.7071067811865475,
     0.7071067811865476
    ],
    [
     -0.5561943596305101,
     1.3427719663353963
    ],
    [
     0.7071067811865474,
     -0.7071067811865477
    ],
    [
     1.342771966335396,
     -0.5561943596305111
    ]
   ],
   "(6.123233995736766e-17, 1.0)": [
    [
     -1.3427719663353963,
     0.5561943596305103
    ],
    [
     -1.0,
     1.2246467991473532e-16
    ],
    [
     1.0,
     0.0
    ],
    [
     1.3427719663353963,
     0.5561943596305102
    ]
   ],
   "(-0.7071067811865475, 0.7071067811865476)": [
    [
     -1.3427719663353965,
     -0.55619435963051
    ],
    [
     -0.7071067811865477,
     -0.7071067811865475
    ],
    [
     0.5561943596305102,
     1.3427719663353963
    ],
    [
     0.7071067811865476,
     0.7071067811865475
    ]
   ],
   "(-1.0, 1.2246467991473532e-16)": [
    [
     -0.556194359630511,
     -1.342771966335396
    ],
    [
     -0.5561943596305101,
     1.3427719663353963
    ],
    [
     -1.8369701987210297e-16,
     -1.0
    ],
    [
     6.123233995736766e-17,
     1.0
    ]
   ],
   "(-0.7071067811865477, -0.7071067811865475)": [
    [
     -1.3427719663353963,
     0.5561943596305103
    ],
    [
     -0.7071067811865475,
     0.7071067811865476
    ],
    [
     0.5561943596305106,
     -1.342771966335396
    ],
    [
     0.7071067811865474,
     -0.7071067811865477
    ]
   ],
   "(-1.8369701987210297e-16, -1.0)": [
    [
     -1.3427719663353965,
     -0.55619435963051
    ],
    [
     -1.0,
     1.2246467991473532e-16
    ],
    [
     1.0,
     0.0
    ],
    [
     1.342771966335396,
     -0.5561943596305111
    ]
   ],
   "(0.7071067811865474, -0.7071067811865477)": [
    [
     -0.7071067811865477,
     -0.7071067811865475
    ],
    [
     -0.556194359630511,
     -1.342771966335396
    ],
    [
     0.7071067811865476,
     0.7071067811865475
    ],
    [
     1.3427719663353963,
     0.5561943596305102
    ]
   ],
   "(1.3427719663353963, 0.5561943596305102)": [
    [
     -0.7071067811865475,
     0.7071067811865476
    ],
    [
     -0.5561943596305101,
     1.3427719663353963
    ],
    [
     -1.8369701987210297e-16,
     -1.0
    ],
    [
     0.5561943596305106,
     -1.342771966335396
    ]
   ],
   "(0.5561943596305102, 1.3427719663353963)": [
    [
     -1.3427719663353963,
     0.5561943596305103
    ],
    [
     -1.0,
     1.2246467991473532e-16
    ],
    [
     0.7071067811865474,
     -0.7071067811865477
    ],
    [
     1.342771966335396,
     -0.5561943596305111
    ]
   ],
   "(-0.5561943596305101, 1.3427719663353963)": [
    [
     -1.3427719663353965,
     -0.55619435963051
    ],
    [
     -0.7071067811865477,
     -0.7071067811865475
    ],
    [
     1.0,
     0.0
    ],
    [
     1.3427719663353963,
     0.5561943596305102
    ]
   ],
   "(-1.3427719663353963, 0.5561943596305103)": [
    [
     -0.556194359630511,
     -1.342771966335396
    ],
    [
     -1.8369701987210297e-16,
     -1.0
    ],
    [
     0.5561943596305102,
     1.3427719663353963
    ],
    [
     0.7071067811865476,
     0.7071067811865475
    ]
   ],
   "(-1.3427719663353965, -0.55619435963051)": [
    [
     -0.5561943596305101,
     1.3427719663353963
    ],
    [
     6.123233995736766e-17,
     1.0
    ],
    [
     0.5561943596305106,
     -1.342771966335396
    ],
    [
     0.7071067811865474,
     -0.7071067811865477
    ]
   ],
   "(-0.556194359630511, -1.342771966335396)": [
    [
     -1.3427719663353963,
     0.5561943596305103
    ],
    [
     -0.7071067811865475,
     0.7071067811865476
    ],
    [
     1.0,
     0.0
    ],
    [
     1.342771966335396,
     -0.5561943596305111
    ]
   ],
   "(0.5561943596305106, -1.342771966335396)": [
    [
     -1.3427719663353965,
     -0.55619435963051
    ],
    [
     -1.0,
     1.2246467991473532e-16
    ],
    [
     0.7071067811865476,
     0.7071067811865475
    ],
    [
     1.3427719663353963,
     0.5561943596305102
    ]
   ],
   "(1.342771966335396, -0.5561943596305111)": [
    [
     -0.7071067811865477,
     -0.7071067811865475
    ],
    [
     -0.556194359630511,
     -1.342771966335396
    ],
    [
     6.123233995736766e-17,
     1.0
    ],
    [
     0.5561943596305102,
     1.3427719663353963
    ]
   ]
  }
 }
}