{
 "m": 8,
 "tau": "half",
 "b": 2.285332209100992,
 "witness": {
  "profile": [
   7,
   7,
   5
  ],
  "U": [
   -0.874558773873262,
   -2.11137165297721
  ],
  "V": [
   2.11137165297721,
   -0.8745587738732621
  ],
  "W": [
   0.8745587738732612,
   -2.1113716529772106
  ],
  "S": [
   [
    -0.7071067811865477,
    -0.7071067811865475
   ],
   [
    6.123233995736766e-17,
    1.0
   ],
   [
    0.7071067811865476,
    0.7071067811865475
   ],
   [
    0.8745587738732609,
    2.1113716529772106
   ],
   [
    0.8745587738732612,
    -2.1113716529772106
   ],
   [
    1.0,
    0.0
   ],
   [
    2.11137165297721,
    -0.8745587738732621
   ]
  ],
  "O1": [
   [
    -2.1113716529772106,
    0.874558773873261
   ],
   [
    -1.0,
    1.2246467991473532e-16
   ],
   [
    -0.874558773873262,
    -2.11137165297721
   ],
   [
    -0.7071067811865475,
    0.7071067811865476
   ],
   [
    -1.8369701987210297e-16,
    -1.0
   ],
   [
    0.7071067811865474,
    -0.7071067811865477
   ],
   [
    0.8745587738732612,
    -2.1113716529772106
   ]
  ],
  "O2": [
   [
    -2.111371652977211,
    -0.8745587738732604
   ],
   [
    -0.874558773873262,
    -2.11137165297721
   ],
   [
    -0.8745587738732605,
    2.1113716529772106
   ],
   [
    2.11137165297721,
    -0.8745587738732621
   ],
   [
    2.1113716529772106,
    0.8745587738732606
   ]
  ],
  "classes": {
   "(1.0, 0.0)": [
    [
     -1.8369701987210297e-16,
     -1.0
    ],
    [
     6.123233995736766e-17,
     1.0
    ],
    [
     2.11137165297721,
     -0.8745587738732621
    ],
    [
     2.1113716529772106,
     0.8745587738732606
    ]
   ],
   "(0.7071067811865476, 0.7071067811865475)": [
    [
     -0.7071067811865475,
     0.7071067811865476
    ],
    [
     0.7071067811865474,
     -0.7071067811865477
    ],
    [
     0.8745587738732609,
     2.1113716529772106
    ],
    [
     2.1113716529772106,
     0.8745587738732606
    ]
   ],
   "(6.123233995736766e-17, 1.0)": [
    [
     -1.0,
     1.2246467991473532e-16
    ],
    [
     -0.8745587738732605,
     2.1113716529772106
    ],
    [
     0.8745587738732609,
     2.1113716529772106
    ],
    [
     1.0,
     0.0
    ]
   ],
   "(-0.7071067811865475, 0.7071067811865476)": [
    [
     -2.1113716529772106,
     0.874558773873261
    ],
    [
     -0.8745587738732605,
     2.1113716529772106
    ],
    [
     -0.7071067811865477,
     -0.7071067811865475
    ],
    [
     0.7071067811865476,
     0.7071067811865475
    ]
   ],
   "(-1.0, 1.2246467991473532e-16)": [
    [
     -2.111371652977211,
     -0.8745587738732604
    ],
    [
     -2.1113716529772106,
     0.874558773873261
    ],
    [
     -1.8369701987210297e-16,
     -1.0
    ],
    [
     6.123233995736766e-17,
     1.0
    ]
   ],
   "(-0.7071067811865477, -0.7071067811865475)": [
    [
     -2.111371652977211,
     -0.8745587738732604
    ],
    [
     -0.874558773873262,
     -2.11137165297721
    ],
    [
     -0.7071067811865475,
     0.7071067811865476
    ],
    [
     0.7071067811865474,
     -0.7071067811865477
    ]
   ],
   "(-1.8369701987210297e-16, -1.0)": [
    [
     -1.0,
     1.2246467991473532e-16
    ],
    [
     -0.874558773873262,
     -2.11137165297721
    ],
    [
     0.8745587738732612,
     -2.1113716529772106
    ],
    [
     1.0,
     0.0
    ]
   ],
   "(0.7071067811865474, -0.7071067811865477)": [
    [
     -0.7071067811865477,
     -0.7071067811865475
    ],
    [
     0.7071067811865476,
     0.7071067811865475
    ],
    [
     0.8745587738732612,
     -2.1113716529772106
    ],
    [
     2.11137165297721,
     -0.8745587738732621
    ]
   ],
   "(2.1113716529772106, 0.8745587738732606)": [
    [
     -1.0,
     1.2246467991473532e-16
    ],
    [
     -0.8745587738732605,
     2.1113716529772106
    ],
    [
     -0.7071067811865477,
     -0.7071067811865475
    ],
    [
     0.8745587738732612,
     -2.1113716529772106
    ]
   ],
   "(0.8745587738732609, 2.1113716529772106)": [
    [
     -2.1113716529772106,
     0.874558773873261
    ],
    [
     -0.7071067811865477,
     -0.7071067811865475
    ],
    [
     -1.8369701987210297e-16,
     -1.0
    ],
    [
     2.11137165297721,
     -0.8745587738732621
    ]
   ],
   "(-0.8745587738732605, 2.1113716529772106)": [
    [
     -2.111371652977211,
     -0.8745587738732604
    ],
    [
     -1.8369701987210297e-16,
     -1.0
    ],
    [
     0.7071067811865474,
     -0.7071067811865477
    ],
    [
     2.1113716529772106,
     0.8745587738732606
    ]
   ],
   "(-2.1113716529772106, 0.874558773873261)": [
    [
     -0.874558773873262,
     -2.11137165297721
    ],
    [
     0.7071067811865474,
     -0.7071067811865477
    ],
    [
     0.8745587738732609,
     2.1113716529772106
    ],
    [
     1.0,
     0.0
    ]
   ],
   "(-2.111371652977211, -0.8745587738732604)": [
    [
     -0.8745587738732605,
     2.1113716529772106
    ],
    [
     0.7071067811865476,
     0.7071067811865475
    ],
    [
     0.8745587738732612,
     -2.1113716529772106
    ],
    [
     1.0,
     0.0
    ]
   ],
   "(-0.874558773873262, -2.11137165297721)": [
    [
     -2.1113716529772106,
     0.874558773873261
    ],
    [
     6.123233995736766e-17,
     1.0
    ],
    [
     0.7071067811865476,
     0.7071067811865475
    ],
    [
     2.11137165297721,
     -0.8745587738732621
    ]
   ],
   "(0.8745587738732612, -2.1113716529772106)": [
    [
     -2.111371652977211,
     -0.8745587738732604
    ],
    [
     -0.7071067811865475,
     0.7071067811865476
    ],
    [
     6.123233995736766e-17,
     1.0
    ],
    [
     2.1113716529772106,
     0.8745587738732606
    ]
   ],
   "(2.11137165297721, -0.8745587738732621)": [
    [
     -1.0,
     1.2246467991473532e-16
    ],
    [
     -0.874558773873262,
     -2.11137165297721
    ],
    [
     -0.7071067811865475,
     0.7071067811865476
    ],
    [
     0.8745587738732609,
     2.1113716529772106
    ]
   ]
  }
 }
}